/* 	Copyright (c) [2022] Ittiam Systems Pvt. Ltd.
   All rights reserved.

   Redistribution and use in source and binary forms, with or without
   modification, are permitted (subject to the limitations in the
   disclaimer below) provided that the following conditions are met:
   •	Redistributions of source code must retain the above copyright
   notice, this list of conditions and the following disclaimer.
   •	Redistributions in binary form must reproduce the above copyright
   notice, this list of conditions and the following disclaimer in the
   documentation and/or other materials provided with the distribution.
   •	Neither the names of Dolby Laboratories, Inc. (or its affiliates),
   Ittiam Systems Pvt. Ltd. nor the names of its contributors may be used
   to endorse or promote products derived from this software without
   specific prior written permission.

   NO EXPRESS OR IMPLIED LICENSES TO ANY PARTY'S PATENT RIGHTS ARE GRANTED
   BY THIS LICENSE. YOUR USE OF THE SOFTWARE MAY REQUIRE ADDITIONAL PATENT
   LICENSE(S) BY THIRD PARTIES, INCLUDING, WITHOUT LIMITATION, DOLBY
   LABORATORIES, INC. OR ANY OF ITS AFFILIATES. THIS SOFTWARE IS PROVIDED
   BY ITTIAM SYSTEMS LTD. AND ITS CONTRIBUTORS "AS IS" AND ANY EXPRESS OR
   IMPLIED WARRANTIES, INCLUDING, BUT NOT LIMITED TO, THE IMPLIED WARRANTIES
   OF MERCHANTABILITY AND FITNESS FOR A PARTICULAR PURPOSE ARE DISCLAIMED.
   IN NO EVENT SHALL ITTIAM SYSTEMS LTD OR ITS CONTRIBUTORS BE LIABLE FOR
   ANY DIRECT, INDIRECT, INCIDENTAL, SPECIAL, EXEMPLARY, OR CONSEQUENTIAL
   DAMAGES (INCLUDING, BUT NOT LIMITED TO, PROCUREMENT OF SUBSTITUTE GOODS
   OR SERVICES; LOSS OF USE, DATA, OR PROFITS; OR BUSINESS INTERRUPTION)
   HOWEVER CAUSED AND ON ANY THEORY OF LIABILITY, WHETHER IN CONTRACT,
   STRICT LIABILITY, OR TORT (INCLUDING NEGLIGENCE OR OTHERWISE) ARISING
   IN ANY WAY OUT OF THE USE OF THIS SOFTWARE, EVEN IF ADVISED OF THE
   POSSIBILITY OF SUCH DAMAGE.
---------------------------------------------------------------
*/

#include "impeghe_type_def.h"

/**
 * @defgroup CoreEncROM Core Encoder ROM Tables
 * @ingroup  CoreEncROM
 * @brief Core Encoder ROM Tables
 *
 * @{
 */

/* Olpa */
const FLOAT32 impeghe_olpa_down2_fir_coeffs[5] = {0.1236796411180537f, 0.2353512128364889f,
                                                  0.2819382920909148f, 0.2353512128364889f,
                                                  0.1236796411180537f};

const FLOAT32 impeghe_olpa_weighted_auto_corr_table[98] = {1.0f,
                                                           0.994845360824742f,
                                                           0.989690721649485f,
                                                           0.984536082474227f,
                                                           0.979381443298969f,
                                                           0.974226804123711f,
                                                           0.969072164948454f,
                                                           0.963917525773196f,
                                                           0.958762886597938f,
                                                           0.953608247422680f,
                                                           0.948453608247423f,
                                                           0.943298969072165f,
                                                           0.938144329896907f,
                                                           0.932989690721650f,
                                                           0.927835051546392f,
                                                           0.922680412371134f,
                                                           0.917525773195876f,
                                                           0.912371134020619f,
                                                           0.907216494845361f,
                                                           0.902061855670103f,
                                                           0.896907216494845f,
                                                           0.891752577319588f,
                                                           0.886597938144330f,
                                                           0.881443298969072f,
                                                           0.876288659793814f,
                                                           0.871134020618557f,
                                                           0.865979381443299f,
                                                           0.860824742268041f,
                                                           0.855670103092784f,
                                                           0.850515463917526f,
                                                           0.845360824742268f,
                                                           0.840206185567010f,
                                                           0.835051546391753f,
                                                           0.829896907216495f,
                                                           0.824742268041237f,
                                                           0.819587628865979f,
                                                           0.814432989690722f,
                                                           0.809278350515464f,
                                                           0.804123711340206f,
                                                           0.798969072164949f,
                                                           0.793814432989691f,
                                                           0.788659793814433f,
                                                           0.783505154639175f,
                                                           0.778350515463918f,
                                                           0.773195876288660f,
                                                           0.768041237113402f,
                                                           0.762886597938144f,
                                                           0.757731958762887f,
                                                           0.752577319587629f,
                                                           0.747422680412371f,
                                                           0.742268041237113f,
                                                           0.737113402061856f,
                                                           0.731958762886598f,
                                                           0.726804123711340f,
                                                           0.721649484536083f,
                                                           0.716494845360825f,
                                                           0.711340206185567f,
                                                           0.706185567010309f,
                                                           0.701030927835052f,
                                                           0.695876288659794f,
                                                           0.690721649484536f,
                                                           0.685567010309278f,
                                                           0.680412371134021f,
                                                           0.675257731958763f,
                                                           0.670103092783505f,
                                                           0.664948453608247f,
                                                           0.659793814432990f,
                                                           0.654639175257732f,
                                                           0.649484536082474f,
                                                           0.644329896907216f,
                                                           0.639175257731959f,
                                                           0.634020618556701f,
                                                           0.628865979381443f,
                                                           0.623711340206186f,
                                                           0.618556701030928f,
                                                           0.613402061855670f,
                                                           0.608247422680412f,
                                                           0.603092783505155f,
                                                           0.597938144329897f,
                                                           0.592783505154639f,
                                                           0.587628865979382f,
                                                           0.582474226804124f,
                                                           0.577319587628866f,
                                                           0.572164948453608f,
                                                           0.567010309278351f,
                                                           0.561855670103093f,
                                                           0.556701030927835f,
                                                           0.551546391752577f,
                                                           0.546391752577320f,
                                                           0.541237113402062f,
                                                           0.536082474226804f,
                                                           0.530927835051546f,
                                                           0.525773195876289f,
                                                           0.520618556701031f,
                                                           0.515463917525773f,
                                                           0.510309278350515f,
                                                           0.505154639175258f,
                                                           0.500000000000000f};

const FLOAT32 impeghe_ltpf_fir_inter4_1[12][33] = {
    {/* ORDER 32, SR=48k, pass band = 4800 stop band = 8094 */
     0.004470182711414f,   -0.0003967850146317f, -0.0052189036216643f, -0.0094618468727919f,
     -0.0080045192371236f, 0.0014999496207168f,  0.0148579897105346f,  0.0219530263486999f,
     0.0130525614524448f,  -0.0124139507314077f, -0.0409919801380185f, -0.0494229598303590f,
     -0.0175070606553338f, 0.0575239601847732f,  0.1547430766701517f,  0.2370031787119405f,
     0.2691973062151891f,  0.2370031787119405f,  0.1547430766701517f,  0.0575239601847732f,
     -0.0175070606553338f, -0.0494229598303590f, -0.0409919801380185f, -0.0124139507314077f,
     0.0130525614524448f,  0.0219530263486999f,  0.0148579897105346f,  0.0014999496207168f,
     -0.0080045192371236f, -0.0094618468727919f, -0.0052189036216643f, -0.0003967850146317f,
     0.0044701827114145f},

    {/* ORDER 32, SR=24k, pass band = 2400  stop band = 4044 */
     0.004480248162790f,  -0.000424780773387f, -0.005249993575046f, -0.009477108919725f,
     -0.007987605370792f, 0.001543927243620f,  0.014897695966372f,  0.021954557548135f,
     0.013007135255164f,  -0.012478235095366f, -0.041027478734767f, -0.049397514879265f,
     -0.017434362639827f, 0.057593473848705f,  0.154757755913002f,  0.236949985337283f,
     0.269113210046207f,  0.236949985337283f,  0.154757755913002f,  0.057593473848705f,
     -0.017434362639827f, -0.049397514879265f, -0.041027478734767f, -0.012478235095366f,
     0.013007135255164f,  0.021954557548135f,  0.014897695966372f,  0.001543927243620f,
     -0.007987605370792f, -0.009477108919725f, -0.005249993575046f, -0.000424780773387f,
     0.004480248162790f},

    {/* ORDER 32, SR=96k, pass band = 9600  stop band = 16177 */
     0.004484044972775f,  -0.000435337056040f, -0.005261665281330f, -0.009482816763823f,
     -0.007981234360048f, 0.001560446050100f,  0.014912577378381f,  0.021955108783851f,
     0.012990069595662f,  -0.012502344969975f, -0.041040780285739f, -0.049387945767810f,
     -0.017407092662725f, 0.057619544771137f,  0.154763248693141f,  0.236930035804258f,
     0.269081663899765f,  0.236930035804258f,  0.154763248693141f,  0.057619544771137f,
     -0.017407092662725f, -0.049387945767810f, -0.041040780285739f, -0.012502344969975f,
     0.012990069595662f,  0.021955108783851f,  0.014912577378381f,  0.001560446050100f,
     -0.007981234360048f, -0.009482816763823f, -0.005261665281330f, -0.000435337056040f,
     0.004484044972775f},
    {/* ORDER 32, SR=88.2k, pass band = 8820  stop band = 14863 */
     0.00448351906539f,  -0.00043387499999f, -0.00526005041081f, -0.00948202774663f,
     -0.00798211653334f, 0.00155816025221f,  0.01491051922898f,  0.02195503328329f,
     0.01299243115504f,  -0.01249900994155f, -0.04103894072796f, -0.04938927027432f,
     -0.01741086496520f, 0.05761593848171f,  0.15476248931091f,  0.23693279532684f,
     0.26908602775395f,  0.23693279532684f,  0.15476248931091f,  0.05761593848171f,
     -0.01741086496520f, -0.04938927027432f, -0.04103894072796f, -0.01249900994155f,
     0.01299243115504f,  0.02195503328329f,  0.01491051922898f,  0.00155816025221f,
     -0.00798211653334f, -0.00948202774663f, -0.00526005041081f, -0.00043387499999f,
     0.00448351906539f},
    {/* ORDER 32, SR=64k, pass band = 6400  stop band = 10785 */
     0.00448341132623f,  -0.00043357547333f, -0.00525971951119f, -0.00948186604282f,
     -0.00798229726998f, 0.00155769188602f,  0.01491009746604f,  0.02195501778223f,
     0.01299291504137f,  -0.01249832653812f, -0.04103856375595f, -0.04938954165437f,
     -0.01741163796753f, 0.05761519949223f,  0.15476233368432f,  0.23693336080029f,
     0.26908692197335f,  0.23693336080029f,  0.15476233368432f,  0.05761519949223f,
     -0.01741163796753f, -0.04938954165437f, -0.04103856375595f, -0.01249832653812f,
     0.01299291504137f,  0.02195501778223f,  0.01491009746604f,  0.00155769188602f,
     -0.00798229726998f, -0.00948186604282f, -0.00525971951119f, -0.00043357547333f,
     0.00448341132623f},
    {/* ORDER 32, SR=44.1k, pass band = 4410  stop band = 7432 */
     0.00448214074249f,  -0.00043004298383f, -0.00525581531962f, -0.00947995742535f,
     -0.00798442902301f, 0.00155216606457f,  0.01490512038081f,  0.02195483410861f,
     0.01299862387845f,  -0.01249026248171f, -0.04103411514070f, -0.04939274303485f,
     -0.01742075912561f, 0.05760647952580f,  0.15476049689318f,  0.23694003332269f,
     0.26909747342801f,  0.23694003332269f,  0.15476049689318f,  0.05760647952580f,
     -0.01742075912561f, -0.04939274303485f, -0.04103411514070f, -0.01249026248171f,
     0.01299862387845f,  0.02195483410861f,  0.01490512038081f,  0.00155216606457f,
     -0.00798442902301f, -0.00947995742535f, -0.00525581531962f, -0.00043004298383f,
     0.00448214074249f},
    {/* ORDER 32, SR=32k, pass band = 3200  stop band = 5392 */
     0.00448531328037f,  -0.00043886286878f, -0.00526555740189f, -0.00948471750124f,
     -0.00797910724930f, 0.00156595561359f,  0.01491753681383f,  0.02195528974134f,
     0.01298437730078f,  -0.01251038197548f, -0.04104521287060f, -0.04938475275203f,
     -0.01739800168404f, 0.05762823547923f,  0.15476507816420f,  0.23692338572470f,
     0.26907114729328f,  0.23692338572470f,  0.15476507816420f,  0.05762823547923f,
     -0.01739800168404f, -0.04938475275203f, -0.04104521287060f, -0.01251038197548f,
     0.01298437730078f,  0.02195528974134f,  0.01491753681383f,  0.00156595561359f,
     -0.00797910724930f, -0.00948471750124f, -0.00526555740189f, -0.00043886286878f,
     0.00448531328037f},
    {/* ORDER 32, SR=22.05, pass band = 2205  stop band = 3716 */
     0.00448214074249f,  -0.00043004298383f, -0.00525581531962f, -0.00947995742535f,
     -0.00798442902301f, 0.00155216606457f,  0.01490512038081f,  0.02195483410861f,
     0.01299862387845f,  -0.01249026248171f, -0.04103411514070f, -0.04939274303485f,
     -0.01742075912561f, 0.05760647952580f,  0.15476049689318f,  0.23694003332269f,
     0.26909747342801f,  0.23694003332269f,  0.15476049689318f,  0.05760647952580f,
     -0.01742075912561f, -0.04939274303485f, -0.04103411514070f, -0.01249026248171f,
     0.01299862387845f,  0.02195483410861f,  0.01490512038081f,  0.00155216606457f,
     -0.00798442902301f, -0.00947995742535f, -0.00525581531962f, -0.00043004298383f,
     0.00448214074249f},
    {/* ORDER 32, SR=16k, pass band = 1600  stop band = 2696 */
     0.00448531328037f,  -0.00043886286878f, -0.00526555740189f, -0.00948471750124f,
     -0.00797910724930f, 0.00156595561359f,  0.01491753681383f,  0.02195528974134f,
     0.01298437730078f,  -0.01251038197548f, -0.04104521287060f, -0.04938475275203f,
     -0.01739800168404f, 0.05762823547923f,  0.15476507816420f,  0.23692338572470f,
     0.26907114729328f,  0.23692338572470f,  0.15476507816420f,  0.05762823547923f,
     -0.01739800168404f, -0.04938475275203f, -0.04104521287060f, -0.01251038197548f,
     0.01298437730078f,  0.02195528974134f,  0.01491753681383f,  0.00156595561359f,
     -0.00797910724930f, -0.00948471750124f, -0.00526555740189f, -0.00043886286878f,
     0.00448531328037f},
    {/* ORDER 32, SR=12k, pass band = 1200  stop band = 2022 */
     0.00448531328037f,  -0.00043886286878f, -0.00526555740189f, -0.00948471750124f,
     -0.00797910724930f, 0.00156595561359f,  0.01491753681383f,  0.02195528974134f,
     0.01298437730078f,  -0.01251038197548f, -0.04104521287060f, -0.04938475275203f,
     -0.01739800168404f, 0.05762823547923f,  0.15476507816420f,  0.23692338572470f,
     0.26907114729328f,  0.23692338572470f,  0.15476507816420f,  0.05762823547923f,
     -0.01739800168404f, -0.04938475275203f, -0.04104521287060f, -0.01251038197548f,
     0.01298437730078f,  0.02195528974134f,  0.01491753681383f,  0.00156595561359f,
     -0.00797910724930f, -0.00948471750124f, -0.00526555740189f, -0.00043886286878f,
     0.00448531328037f},
    {/* ORDER 32, SR=11.05, pass band = 1105  stop band = 1857 */
     0.00448097117935f,  -0.00046923938958f, -0.00529092709769f, -0.00948514720316f,
     -0.00794418148975f, 0.00162114884895f,  0.01495466501779f,  0.02194112398458f,
     0.01291886118342f,  -0.01258687729536f, -0.04107695175548f, -0.04934087891379f,
     -0.01730193937177f, 0.05771301109231f,  0.15477809298453f,  0.23685240933741f,
     0.26896281869919f,  0.23685240933741f,  0.15477809298453f,  0.05771301109231f,
     -0.01730193937177f, -0.04934087891379f, -0.04107695175548f, -0.01258687729536f,
     0.01291886118342f,  0.02194112398458f,  0.01495466501779f,  0.00162114884895f,
     -0.00794418148975f, -0.00948514720316f, -0.00529092709769f, -0.00046923938958f,
     0.00448097117935f},
    {/* ORDER 32, SR=8k, pass band = 800  stop band = 1348 */
     0.00448531328037f,  -0.00043886286878f, -0.00526555740189f, -0.00948471750124f,
     -0.00797910724930f, 0.00156595561359f,  0.01491753681383f,  0.02195528974134f,
     0.01298437730078f,  -0.01251038197548f, -0.04104521287060f, -0.04938475275203f,
     -0.01739800168404f, 0.05762823547923f,  0.15476507816420f,  0.23692338572470f,
     0.26907114729328f,  0.23692338572470f,  0.15476507816420f,  0.05762823547923f,
     -0.01739800168404f, -0.04938475275203f, -0.04104521287060f, -0.01251038197548f,
     0.01298437730078f,  0.02195528974134f,  0.01491753681383f,  0.00156595561359f,
     -0.00797910724930f, -0.00948471750124f, -0.00526555740189f, -0.00043886286878f,
     0.00448531328037f}};

const FLOAT32 impeghe_ltpf_inter_filter[4][4] = {
    {+2.098804630681809e-01f, +5.835275754221211e-01f, +2.098804630681809e-01f, 0},
    {+1.069991860896389e-01f, +5.500750019177116e-01f, +3.356906254147840e-01f,
     +6.698858366939680e-03f},
    {+3.967114782344967e-02f, +4.592209296082350e-01f, +4.592209296082350e-01f,
     +3.967114782344967e-02f},
    {+6.698858366939680e-03f, +3.356906254147840e-01f, +5.500750019177116e-01f,
     +1.069991860896389e-01f}};

const float inter4_2tcx2[4][4] = {{0.2325402f, 0.5349195f, 0.2325402f, 0.0000000f},
                                  {0.1353017f, 0.5094465f, 0.3400065f, 0.0152453f},
                                  {0.0608774f, 0.4391226f, 0.4391226f, 0.0608774f},
                                  {0.0152453f, 0.3400065f, 0.5094465f, 0.1353017f}};

const float inter6_2tcx2[6][4] = {{0.2241379f, 0.5517241f, 0.2241379f, 0.0000000f},
                                  {0.1562044f, 0.5388595f, 0.2990011f, 0.0059349f},
                                  {0.0991379f, 0.5018346f, 0.3750000f, 0.0240275f},
                                  {0.0549361f, 0.4450639f, 0.4450639f, 0.0549361f},
                                  {0.0240275f, 0.3750000f, 0.5018346f, 0.0991379f},
                                  {0.0059349f, 0.2990011f, 0.5388595f, 0.1562044f}};
/** @} */ /* End of CoreEncROM */
